<?xml version="1.0"?>
<opencv_storage>
<cascade>
  <stageType>BOOST</stageType>
  <featureType>HAAR</featureType>
  <height>60</height>
  <width>60</width>
  <stageParams>
    <boostType>GAB</boostType>
    <minHitRate>9.9500000476837158e-01</minHitRate>
    <maxFalseAlarm>5.0000000745058060e-02</maxFalseAlarm>
    <weightTrimRate>9.4999999999999996e-01</weightTrimRate>
    <maxDepth>1</maxDepth>
    <maxWeakCount>100</maxWeakCount></stageParams>
  <featureParams>
    <maxCatCount>0</maxCatCount>
    <featSize>1</featSize>
    <mode>ALL</mode></featureParams>
  <stageNum>1</stageNum>
  <stages>
    <!-- stage 0 -->
    <_>
      <maxWeakCount>11</maxWeakCount>
      <stageThreshold>-4.8595365881919861e-01</stageThreshold>
      <weakClassifiers>
        <_>
          <internalNodes>
            0 -1 8 9.8350094631314278e-03</internalNodes>
          <leafValues>
            -6.7567569017410278e-01 7.1117168664932251e-01</leafValues></_>
        <_>
          <internalNodes>
            0 -1 0 -3.0587431043386459e-02</internalNodes>
          <leafValues>
            5.0545966625213623e-01 -7.1037656068801880e-01</leafValues></_>
        <_>
          <internalNodes>
            0 -1 7 -2.0895961672067642e-02</internalNodes>
          <leafValues>
            6.0582244396209717e-01 -5.9813243150711060e-01</leafValues></_>
        <_>
          <internalNodes>
            0 -1 9 9.4476202502846718e-04</internalNodes>
          <leafValues>
            -6.2215143442153931e-01 4.0201076865196228e-01</leafValues></_>
        <_>
          <internalNodes>
            0 -1 2 9.2431664234027267e-04</internalNodes>
          <leafValues>
            -6.4562410116195679e-01 4.8306569457054138e-01</leafValues></_>
        <_>
          <internalNodes>
            0 -1 4 -1.3851019321009517e-03</internalNodes>
          <leafValues>
            4.2795467376708984e-01 -7.1736377477645874e-01</leafValues></_>
        <_>
          <internalNodes>
            0 -1 10 6.1886443290859461e-05</internalNodes>
          <leafValues>
            -4.5865264534950256e-01 7.6245605945587158e-01</leafValues></_>
        <_>
          <internalNodes>
            0 -1 3 -6.5978020429611206e-03</internalNodes>
          <leafValues>
            4.4360369443893433e-01 -6.2369102239608765e-01</leafValues></_>
        <_>
          <internalNodes>
            0 -1 1 -1.5726261772215366e-03</internalNodes>
          <leafValues>
            6.4949893951416016e-01 -4.2795896530151367e-01</leafValues></_>
        <_>
          <internalNodes>
            0 -1 6 1.7969537526369095e-02</internalNodes>
          <leafValues>
            -4.5008984208106995e-01 6.9403517246246338e-01</leafValues></_>
        <_>
          <internalNodes>
            0 -1 5 2.2417567670345306e-03</internalNodes>
          <leafValues>
            -3.0665141344070435e-01 8.5449105501174927e-01</leafValues></_></weakClassifiers></_></stages>
  <features>
    <_>
      <rects>
        <_>
          0 27 18 33 -1.</_>
        <_>
          6 38 6 11 9.</_></rects>
      <tilted>0</tilted></_>
    <_>
      <rects>
        <_>
          0 37 12 10 -1.</_>
        <_>
          4 37 4 10 3.</_></rects>
      <tilted>0</tilted></_>
    <_>
      <rects>
        <_>
          7 37 6 7 -1.</_>
        <_>
          7 37 3 7 2.</_></rects>
      <tilted>1</tilted></_>
    <_>
      <rects>
        <_>
          13 32 9 28 -1.</_>
        <_>
          13 39 9 14 2.</_></rects>
      <tilted>0</tilted></_>
    <_>
      <rects>
        <_>
          23 7 11 12 -1.</_>
        <_>
          20 10 11 6 2.</_></rects>
      <tilted>1</tilted></_>
    <_>
      <rects>
        <_>
          28 3 8 21 -1.</_>
        <_>
          30 3 4 21 2.</_></rects>
      <tilted>0</tilted></_>
    <_>
      <rects>
        <_>
          29 9 28 21 -1.</_>
        <_>
          43 9 14 21 2.</_></rects>
      <tilted>0</tilted></_>
    <_>
      <rects>
        <_>
          34 3 24 7 -1.</_>
        <_>
          42 11 8 7 3.</_></rects>
      <tilted>1</tilted></_>
    <_>
      <rects>
        <_>
          44 39 16 15 -1.</_>
        <_>
          52 39 8 15 2.</_></rects>
      <tilted>0</tilted></_>
    <_>
      <rects>
        <_>
          48 51 12 7 -1.</_>
        <_>
          54 51 6 7 2.</_></rects>
      <tilted>0</tilted></_>
    <_>
      <rects>
        <_>
          56 32 3 7 -1.</_>
        <_>
          57 32 1 7 3.</_></rects>
      <tilted>0</tilted></_></features></cascade>
</opencv_storage>
